-0.001545
-0.002006
0.001011
-0.000592
-0.002253
-0.002537
-0.001166
-0.002147
-0.002699
-0.002348
-0.000219
0.000815
-0.002520
-0.001257
-0.001797
-0.001282
-0.000866
0.000984
0.000115
-0.034619
-0.035129
-0.031296
-0.034483
-0.033284
-0.000360
-0.000717
-0.001468
-0.001828
0.001622
-0.002173
-0.001972
0.000119
-0.032493
-0.000546
0.003412
0.001119
-0.004354
0.003080
-0.034497
-0.001477
0.001096
-0.001252
-0.001252
0.000495
-0.001676
0.017073
0.048648
0.045257
0.051726
0.036831
0.063325
0.043931
0.047011
0.011838
0.001604
-0.002919
-0.000455
0.000501
-0.032383
0.035369
0.020744
0.035567
0.064950
0.043449
0.036830
0.029100
0.047824
0.045793
-0.038593
0.002005
-0.000650
-0.034065
-0.001597
0.039802
0.047527
0.046030
0.036819
0.046614
0.069669
0.037064
0.059334
0.051975
0.000385
-0.035230
-0.001814
-0.035894
0.003926
0.047428
0.050340
0.048401
0.045087
0.045292
0.047711
0.037959
0.041447
0.043030
0.000153
-0.031811
-0.000943
-0.036307
-0.001866
0.032531
0.041751
0.049202
0.046048
0.059172
0.029165
0.059610
0.048127
0.050849
0.001234
-0.038067
-0.001271
-0.032295
0.001635
0.040928
0.046342
0.043737
0.037049
0.056045
0.043850
0.044934
0.047128
0.017882
0.000793
-0.034273
-0.000355
0.000359
-0.031605
0.048601
0.035068
0.042027
0.050825
0.063118
0.045788
0.031872
0.063326
0.036822
-0.037018
-0.000834
-0.002353
-0.001384
0.000961
0.018353
0.039231
0.027031
0.051113
0.061384
0.021970
0.044743
0.060806
0.025084
-0.002197
-0.001073
0.001223
0.000312
-0.001408
-0.000351
-0.037530
-0.001511
-0.001798
-0.002304
0.000036
0.003460
-0.031576
0.001488
-0.002034
0.001337
-0.000991
-0.002914
-0.001002
0.001606
-0.001038
-0.034985
-0.035506
-0.034798
-0.034291
-0.037425
-0.001769
-0.000710
-0.001965
-0.002996
-0.001623
-0.000339
0.001152
-0.001431
-0.000480
-0.000260
-0.002852
-0.000580
-0.000210
-0.002804
0.000350
0.001909
-0.000297
-0.000295
0.025051
0.021838
0.025393
0.021569
0.022790
0.022410
0.021955
0.023129
0.022112
0.026235
0.025294
0.023100
0.025677
0.026364
0.025042
0.024823
0.024794
0.022065
0.023305
0.143997
0.159485
0.138516
0.150881
0.144837
0.025085
0.025287
0.026549
0.021683
0.021695
0.022609
0.023173
0.026170
0.152325
-0.093078
-0.110084
-0.096356
-0.076343
-0.102468
0.150861
0.024883
0.025910
0.024070
0.025797
0.023307
0.021956
-0.089945
-0.313630
-0.299877
-0.332646
-0.260457
-0.379797
-0.307316
-0.323336
-0.077062
0.023235
0.022657
0.021896
0.022810
0.153176
-0.255508
-0.190660
-0.256549
-0.412856
-0.307820
-0.257702
-0.236194
-0.316639
-0.301053
0.165254
0.023452
0.022035
0.152649
-0.082563
-0.288052
-0.320824
-0.303075
-0.259508
-0.327006
-0.427267
-0.283716
-0.367773
-0.335116
-0.098971
0.151209
0.025783
0.148602
-0.106213
-0.316955
-0.327621
-0.310557
-0.293914
-0.312252
-0.314333
-0.269414
-0.282364
-0.297443
-0.093215
0.146773
0.023469
0.149551
-0.083606
-0.249556
-0.287385
-0.326393
-0.309896
-0.381085
-0.227239
-0.365489
-0.337604
-0.344062
-0.091765
0.157435
0.024178
0.150985
-0.098998
-0.292636
-0.326356
-0.313778
-0.256006
-0.369481
-0.300315
-0.317039
-0.314130
-0.182371
-0.090449
0.151523
0.024045
0.024452
0.146011
-0.325890
-0.273378
-0.298605
-0.347286
-0.401303
-0.300708
-0.246892
-0.383307
-0.263867
0.159209
0.025612
0.023891
0.021856
0.022151
-0.090134
-0.263883
-0.234541
-0.334101
-0.378130
-0.199451
-0.312559
-0.382420
-0.138887
0.022872
0.024806
0.025346
0.025058
0.021972
0.024010
0.165900
-0.083107
-0.090132
-0.082274
-0.103466
-0.104068
0.136267
0.023685
0.025079
0.025624
0.025447
0.026585
0.023380
0.026548
0.023754
0.151765
0.154648
0.142956
0.157714
0.155319
0.023716
0.023275
0.024546
0.026090
0.023246
0.024996
0.024251
0.025860
0.024216
0.026065
0.024603
0.025355
0.025890
0.024971
0.023666
0.023972
0.023365
0.023980
-0.033624
-0.034490
-0.032837
-0.032020
-0.035058
-0.034589
-0.032534
-0.034413
-0.034244
-0.030531
-0.033914
-0.031317
-0.033325
-0.030726
-0.034593
-0.033956
-0.031568
-0.030144
-0.034641
0.208622
0.236365
0.195810
0.219898
0.202171
-0.030972
-0.031526
-0.030393
-0.030394
-0.033925
-0.031117
-0.030842
-0.032152
0.222506
-0.006214
-0.028509
-0.020615
0.019695
-0.025331
0.223528
-0.033873
-0.034376
-0.031987
-0.031151
-0.030119
-0.030492
0.304321
0.117349
0.230815
0.285103
0.054208
0.123191
0.058934
0.140878
0.363107
-0.030131
-0.030866
-0.034894
-0.031293
0.223368
0.219625
-0.097569
0.115998
0.284952
0.282205
0.131152
0.175979
0.234431
0.204350
0.244532
-0.032512
-0.034459
0.218745
0.003631
0.083984
0.164857
0.145123
0.145317
0.215430
0.255733
0.203901
0.121254
0.136131
-0.007757
0.219614
-0.032705
0.212928
-0.028993
0.245373
0.243079
0.220142
0.106383
0.142001
0.272855
0.123196
0.090036
0.212486
-0.005856
0.206971
-0.033300
0.218352
0.005858
0.118146
0.095616
0.273331
0.237332
0.309593
0.023415
0.276306
0.279420
0.315025
-0.011025
0.230260
-0.034505
0.216561
-0.021744
0.124095
0.189192
0.203568
0.102169
0.217627
0.256247
0.245398
0.189110
0.219757
-0.003830
0.216940
-0.032293
-0.032912
0.206646
0.094707
0.084966
0.246168
0.214868
0.293987
0.276187
0.210151
0.285798
0.151467
0.231644
-0.034002
-0.030184
-0.034810
-0.030503
0.462882
0.126022
0.222007
0.246892
0.296913
0.060911
0.177420
0.219926
0.445378
-0.031305
-0.031784
-0.033309
-0.031519
-0.034788
-0.034926
0.250616
0.009291
-0.006449
0.006698
-0.019324
-0.019351
0.198576
-0.035074
-0.034805
-0.034399
-0.031339
-0.030531
-0.032698
-0.035018
-0.031078
0.222212
0.223829
0.209638
0.234035
0.232338
-0.033391
-0.031349
-0.034010
-0.033532
-0.034464
-0.034676
-0.033188
-0.031551
-0.031596
-0.033919
-0.031371
-0.031278
-0.032697
-0.031339
-0.034394
-0.033174
-0.030240
-0.032473
-1.673600
9.819613
-5.065262
1.783800
-18.170537
-7.183792
-0.064643
-6.719205
10.794508
1.677788
-7.038750
-19.106176
0.000000
0.000000
0.000000
0.000000
0.000000
0.000000
0.000000
0.000000
0.000000
0.000000
0.000000
0.000000
0.000000
0.000000
0.000000
0.000000
0.000000
0.000000
0.000000
0.000000
0.000000
0.000000
0.000000
0.000000
0.000000
0.000000
0.000000
0.000000
0.000000
0.000000
0.000000
0.000000
0.000000
0.000000
0.000000
0.000000
0.000000
0.000000
0.000000
0.000000
0.000000
0.000000
0.000000
0.000000
0.000000
0.000000
0.000000
0.000000
0.000000
0.000000
0.000000
0.000000
0.000000
0.000000
0.000000
0.000000
0.000000
0.000000
0.000000
0.000000
0.000000
0.000000
0.000000
0.000000
0.000000
0.000000
0.000000
0.000000
0.000000
0.000000
0.000000
0.000000
0.000000
0.000000
0.000000
0.000000
0.000000
0.000000
0.000000
0.000000
0.000000
0.000000
0.000000
0.000000
0.000000
0.000000
0.000000
0.000000
0.000000
0.000000
0.000000
0.000000
0.000000
0.000000
0.000000
0.000000
0.000000
0.000000
0.000000
0.000000
0.000000
0.000000
0.000000
0.000000
0.000000
0.000000
0.000000
0.000000
0.000000
0.000000
0.000000
0.000000
0.000000
0.000000
0.000000
0.000000
0.000000
0.000000
0.000000
0.000000
0.000000
0.000000
0.000000
0.000000
0.000000
0.000000
0.000000
0.000000
0.000000
0.000000
0.000000
0.000000
0.000000
0.000000
0.000000
0.000000
0.000000
0.000000
0.000000
0.000000
0.000000
0.000000
0.000000
0.000000
0.000000
0.000000
0.000000
0.000000
0.000000
0.000000
0.000000
0.000000
0.000000
0.000000
0.000000
0.000000
0.000000
0.000000
0.000000
0.000000
0.000000
0.000000
0.000000
0.000000
0.000000
0.000000
0.000000
0.000000
0.000000
0.000000
0.000000
0.000000
0.000000
0.000000
0.000000
0.000000
0.000000
0.000000
0.000000
0.000000
0.000000
0.000000
0.000000
0.000000
0.000000
0.000000
0.000000
0.000000
0.000000
0.000000
0.000000
0.000000
0.000000
0.000000
0.000000
0.000000
-0.165051
8.586501
-11.614302
-5.316016
3.351749
-7.191515
4.213762
