2389.021382
-4606.445198
2951.932518
-11729.570700
-16513.476620
-5016.495738
6271.148525
769.513865
-1558.268366
857.537579
-3941.370681
-5535.139434
-1823.337293
1988.751079
4301.858203
-6193.371056
6155.161590
-16659.942496
-23896.364269
-4769.697675
11468.117676
-1409.320567
2661.138098
-1622.321849
6936.181751
9874.138560
3083.231990
-3777.053746
1032.448438
-2052.731196
1119.881546
-5206.232805
-7344.010201
-2403.959736
2650.773575
-2585.258801
4685.383899
-3216.991821
12129.636441
17424.328142
5108.299399
-6906.392165
-2322.363018
4473.607289
-2550.740849
11581.111402
16486.435986
5158.836378
-6234.482545
3.950849
1.907469
10.563308
-2.111195
2.741151
-5.053518
-6.238774
-3.113886
-1.058904
-1.894718
2.753911
-1.334284
5.401234
4.171975
-8.139677
-1.957798
-7.921563
4.532357
-2.113807
4.179161
3.354251
4.918563
0.861208
8.624283
-3.096943
1.033111
-4.657034
-2.681565
4.508643
1.432479
2.978161
-3.298629
2.111194
-6.618905
-5.922344
2.987579
0.561156
6.834077
-2.506504
0.660865
-3.775386
-2.114418
-4.214627
-2.041207
-10.033233
1.777996
-2.884555
5.228130
5.976292
-4.544591
2.214477
3.910546
-3.488240
-3.376211
-2.230611
3.883030
-4.205439
1.998319
3.622375
-3.282195
-3.139946
-2.086123
3.684749
-4.252578
2.481272
1.714441
-2.437185
-3.319008
-1.608131
4.174954
-4.222191
2.544939
1.684246
-2.495311
-3.360157
-1.693552
4.222623
-4.141588
2.062152
3.619326
-3.262020
-3.061494
-2.138718
3.604765
-3.649475
1.851463
3.351332
-2.932891
-2.803798
-1.882294
3.211625
-3.682567
1.691169
2.985883
-2.811332
-2.689883
-1.586503
3.337559
1.876487
1.729791
1.779466
1.848636
1.803366
1.660061
1.915203
1.907663
1.869771
1.841249
1.860448
1.769995
1.724342
1.865603
1.684102
1.699202
1.677641
1.739363
1.572780
1.560618
1.740895
1.937198
1.754009
1.907633
1.899953
1.867344
1.710039
1.907804
2.008115
1.769322
1.843501
1.959294
1.846099
1.657914
1.902418
1.945556
1.913925
1.859904
1.917845
1.812214
1.639461
1.870213
2.050479
1.914273
1.993078
1.925965
1.904405
1.735141
2.005660
-1.630563
-1.610240
-1.490296
-1.665573
-1.732162
-1.683900
-1.787677
-1.655501
-1.754198
-1.536339
-1.794700
-1.724475
-1.814973
-1.870104
-1.800292
-1.885786
-1.636225
-1.818160
-1.860584
-1.769587
-1.828401
-1.782345
-1.717419
-1.577607
-1.736021
-1.754599
-1.756111
-1.860603
-1.636141
-1.732026
-1.553092
-1.726232
-1.744529
-1.722907
-1.754042
-2.048875
-1.982470
-1.895363
-2.070881
-2.079478
-2.040244
-2.176877
-1.767915
-1.862750
-1.634284
-1.856170
-1.816058
-1.890269
-1.945882
-0.497135
-0.610021
-0.654689
-0.581507
-0.596606
-0.649592
-0.598142
-0.352156
-0.334950
-0.375747
-0.321078
-0.342841
-0.514180
-0.365137
-0.381544
-0.364448
-0.311144
-0.330976
-0.393796
-0.506903
-0.341038
-0.131793
-0.107645
-0.109598
-0.134478
-0.087751
-0.046726
-0.095977
0.007908
0.024609
0.040231
0.066995
0.000009
0.100759
0.037674
0.080155
0.087149
-0.011110
-0.023616
0.057475
0.084616
-0.066578
0.032073
0.085720
0.075305
0.062189
0.064261
0.189052
0.068666
0.000000
0.000000
0.000000
0.000000
0.000000
0.000000
0.000000
72.274559
0.286829
819.356614
-61.122215
2.831456
-121.798991
-99.214346
6.267806
-6.343783
-5.988671
3.806798
6.268238
2.568121
-6.602698
-4.258789
-3.689992
0.411774
0.429097
-3.681826
-2.990705
-2.359991
-6.895028
-7.052889
-6.227341
-7.178611
-7.174789
-7.149959
-7.524031
-2.623599
-2.434647
-2.404320
-2.597849
-2.438277
-2.232398
-2.515425
-2.971558
-2.231428
-1.764426
-1.411101
-1.150038
-0.909378
-2.362294
